{"learner":{"attributes":{},"feature_names":[],"feature_types":[],"gradient_booster":{"model":{"gbtree_model_param":{"num_parallel_tree":"1","num_trees":"10"},"iteration_indptr":[0,1,2,3,4,5,6,7,8,9,10],"tree_info":[0,0,0,0,0,0,0,0,0,0],"trees":[{"base_weights":[-0E0,-7.593192E-1,2.5010425E-1,-2.8455285E-2,-9.427E-1,4.1286644E-1,-1.0013137E-1,-1.1746776E0,-8.41169E-1,4.6734488E-1,3.5426732E-2,-3.9391938E-1,1.3214938E-1,-1.0224215E0,-6.6748166E-1,-4.7109827E-1,-1.0403131E0,4.1099045E-1,1.4096552E0,-6.0534123E-2,9.230769E-1,-8.384992E-1,-2.8051302E-1,-7.894737E-1,1.5783899E-1,-5.3355706E-1,-4.6E-1,-2.2950819E-2,-2.9455218E-1,-6.270007E-1,-3.8146168E-1,1.35101E-1,2.8193682E-1,8.2828283E-1,6.53484E-1,2.3545707E-2,-3.469388E-1,5.833333E-1,-0E0,-3.2551318E-1,-5.289855E-1,-1.0526316E-1,-3.5951662E-1,6.289137E-2,6.2616825E-1],"categories":[],"categories_nodes":[],"categories_segments":[],"categories_sizes":[],"default_left":[0,0,0,0,0,0,0,0,0,0,0,0,0,0,0,0,0,0,0,0,0,0,0,0,0,0,0,0,0,0,0,0,0,0,0,0,0,0,0,0,0,0,0,0,0],"id":0,"left_children":[1,3,5,-1,7,9,11,13,15,17,19,21,23,25,-1,27,29,31,33,35,37,39,41,-1,43,-1,-1,-1,-1,-1,-1,-1,-1,-1,-1,-1,-1,-1,-1,-1,-1,-1,-1,-1,-1],"loss_changes":[1.3622168E3,2.2887085E2,3.076267E2,0E0,3.2203857E1,7.573505E1,1.1693234E2,9.043579E0,7.2009766E1,1.7037366E2,3.972831E1,3.7906128E1,4.232743E1,3.9031982E-2,0E0,1.7333778E1,3.690515E1,6.525964E1,2.43042E0,2.8746729E1,1.023077E1,5.616707E0,1.839341E1,0E0,3.296317E1,0E0,0E0,0E0,0E0,0E0,0E0,0E0,0E0,0E0,0E0,0E0,0E0,0E0,0E0,0E0,0E0,0E0,0E0,0E0,0E0],"parents":[2147483647,0,0,1,1,2,2,4,4,5,5,6,6,7,7,8,8,9,9,10,10,11,11,12,12,13,13,15,15,16,16,17,17,18,18,19,19,20,20,21,21,22,22,24,24],"right_children":[2,4,6,-1,8,10,12,14,16,18,20,22,24,26,-1,28,30,32,34,36,38,40,42,-1,44,-1,-1,-1,-1,-1,-1,-1,-1,-1,-1,-1,-1,-1,-1,-1,-1,-1,-1,-1,-1],"split_conditions":[2E0,2E0,3E0,-2.8455285E-2,8E0,2.5E1,4E0,3E0,4E0,1.8E1,3.1E1,1.1E1,7E0,5E0,-6.6748166E-1,1E1,2.3E1,9E0,2E1,2.8E1,4.4E1,4E0,8E0,-7.894737E-1,1.9E1,-5.3355706E-1,-4.6E-1,-2.2950819E-2,-2.9455218E-1,-6.270007E-1,-3.8146168E-1,1.35101E-1,2.8193682E-1,8.2828283E-1,6.53484E-1,2.3545707E-2,-3.469388E-1,5.833333E-1,-0E0,-3.2551318E-1,-5.289855E-1,-1.0526316E-1,-3.5951662E-1,6.289137E-2,6.2616825E-1],"split_indices":[0,1,2,0,1,1,0,2,2,0,0,1,1,1,0,1,1,1,1,0,1,2,2,0,0,0,0,0,0,0,0,0,0,0,0,0,0,0,0,0,0,0,0,0,0],"split_type":[0,0,0,0,0,0,0,0,0,0,0,0,0,0,0,0,0,0,0,0,0,0,0,0,0,0,0,0,0,0,0,0,0,0,0,0,0,0,0,0,0,0,0,0,0],"sum_hessian":[7.171E3,1.77625E3,5.39475E3,3.68E2,1.40825E3,3.683E3,1.71175E3,4.255E2,9.8275E2,3.21825E3,4.6475E2,7.555E2,9.5625E2,2.22E2,2.035E2,3.45E2,6.3775E2,3.038E3,1.8025E2,4.2025E2,4.45E1,1.5225E2,6.0325E2,1.325E1,9.43E2,1.48E2,7.4E1,7.525E1,2.6975E2,3.5825E2,2.795E2,1.583E3,1.455E3,4.85E1,1.3175E2,3.6E2,6.025E1,3.5E1,9.5E0,8.425E1,6.8E1,5.215E2,8.175E1,9.1725E2,2.575E1],"tree_param":{"num_deleted":"0","num_feature":"3","num_nodes":"45","size_leaf_vector":"1"}},{"base_weights":[-1.6233167E-3,-4.0975255E-1,1.2832499E-1,-1.4270075E-2,-5.155377E-1,4.1892776E-1,6.71341E-2,-5.704104E-1,-2.814511E-1,5.8501285E-1,-4.4807705E-1,-2.87303E-1,1.4155735E-1,-4.737941E-1,-8.040313E-1,-5.7373166E-2,-5.1106435E-1,1.8288404E-1,6.821682E-1,-6.962696E-1,1.044187E-2,-3.2567088E-2,-4.8219693E-1,-1.3883416E-1,2.3009312E-1,-3.2590777E-1,-1.5468892E-1,-3.7952107E-1,-6.254109E-1,-3.751188E-2,4.017298E-1,-1.9335145E-1,-3.988991E-1,3.545529E-1,3.0821592E-1,-3.0877474E-1,-4.385432E-1,-1.1672203E-1,1.02333695E-1,-2.1619534E-1,6.8188995E-2,-3.4576964E-1,-4.7177523E-2,1.7937584E-1,8.927795E-3],"categories":[],"categories_nodes":[],"categories_segments":[],"categories_sizes":[],"default_left":[0,0,0,0,0,0,0,0,0,0,0,0,0,0,0,0,0,0,0,0,0,0,0,0,0,0,0,0,0,0,0,0,0,0,0,0,0,0,0,0,0,0,0,0,0],"id":1,"left_children":[1,3,5,-1,7,9,11,13,15,17,19,21,23,25,27,29,31,-1,33,35,37,39,-1,41,43,-1,-1,-1,-1,-1,-1,-1,-1,-1,-1,-1,-1,-1,-1,-1,-1,-1,-1,-1,-1],"loss_changes":[3.7190814E2,6.82796E1,9.455365E1,0E0,1.686679E1,1.3345543E2,1.15971306E2,2.3836151E1,1.3024036E1,1.6294922E1,1.6994379E1,1.3157234E2,9.021761E1,2.2085434E1,5.331238E0,2.0283217E0,4.1551514E0,0E0,5.1390076E-1,8.370857E-1,2.5776553E0,3.7579304E1,0E0,2.1383009E1,7.539821E1,0E0,0E0,0E0,0E0,0E0,0E0,0E0,0E0,0E0,0E0,0E0,0E0,0E0,0E0,0E0,0E0,0E0,0E0,0E0,0E0],"parents":[2147483647,0,0,1,1,2,2,4,4,5,5,6,6,7,7,8,8,9,9,10,10,11,11,12,12,13,13,14,14,15,15,16,16,18,18,19,19,20,20,21,21,23,23,24,24],"right_children":[2,4,6,-1,8,10,12,14,16,18,20,22,24,26,28,30,32,-1,34,36,38,40,-1,42,44,-1,-1,-1,-1,-1,-1,-1,-1,-1,-1,-1,-1,-1,-1,-1,-1,-1,-1,-1,-1],"split_conditions":[2E0,2E0,6E0,-1.4270075E-2,2.7E1,2E0,9E0,5E0,6E0,3E0,3E0,8E0,4E0,8E0,2.6E1,5.8E1,4.6E1,1.8288404E-1,5E0,5E0,5E0,5E0,-4.8219693E-1,1E1,2.4E1,-3.2590777E-1,-1.5468892E-1,-3.7952107E-1,-6.254109E-1,-3.751188E-2,4.017298E-1,-1.9335145E-1,-3.988991E-1,3.545529E-1,3.0821592E-1,-3.0877474E-1,-4.385432E-1,-1.1672203E-1,1.02333695E-1,-2.1619534E-1,6.8188995E-2,-3.4576964E-1,-4.7177523E-2,1.7937584E-1,8.927795E-3],"split_indices":[0,1,1,0,1,2,1,2,2,0,0,0,0,1,1,1,1,0,0,1,1,0,0,1,1,0,0,0,0,0,0,0,0,0,0,0,0,0,0,0,0,0,0,0,0],"split_type":[0,0,0,0,0,0,0,0,0,0,0,0,0,0,0,0,0,0,0,0,0,0,0,0,0,0,0,0,0,0,0,0,0,0,0,0,0,0,0,0,0,0,0,0,0],"sum_hessian":[7.01042E3,1.69253E3,5.3178896E3,3.6792554E2,1.3246045E3,9.2397534E2,4.3939146E3,1.0719011E3,2.5270341E2,7.75705E2,1.4827032E2,7.620115E2,3.631903E3,7.6044104E2,3.1146E2,1.2852582E2,1.241776E2,2.3965479E2,5.3605023E2,9.586232E1,5.2408E1,5.5445996E2,2.0755148E2,8.7145374E2,2.7604492E3,3.6369095E2,3.9675012E2,2.8541888E2,2.6041126E1,1.26837975E2,1.6878508E0,8.825049E1,3.592711E1,3.7329404E2,1.6275621E2,6.986246E1,2.5999865E1,2.3144232E1,2.9263771E1,1.6423167E2,3.9022827E2,6.3823578E1,8.076301E2,1.7181904E3,1.0422588E3],"tree_param":{"num_deleted":"0","num_feature":"3","num_nodes":"45","size_leaf_vector":"1"}},{"base_weights":[-2.5334726E-3,-2.2945862E-1,6.6684954E-2,-7.011112E-2,-3.5854378E-1,3.75415E-2,3.8297698E-1,-7.968793E-2,1.2049968E0,-5.913755E-1,-2.5402883E-1,7.658128E-2,-2.5458595E-1,6.5675724E-1,5.651954E-2,-4.8720088E-2,-6.621052E-1,7.6390016E-1,1.003435E-1,-6.167262E-1,-2.8559563E-1,-1.17605746E-1,-4.3588793E-1,1.3691725E-1,-1.3104005E-1,-6.3164973E-1,-3.8792066E-2,5.4562277E-1,1.2367665E0,-1.1475794E-1,6.6318804E-1,-3.679969E-2,6.288452E-1,-4.6592948E-1,-1.6227359E-1,-1.348918E-1,-3.223251E-1,-2.1448396E-1,2.5189623E-1,-2.6211178E-1,-4.206107E-2,-3.5968196E-1,-1.2702931E-1,5.2742362E-2,1.6608475E-1,-1.1282515E-1,5.4697223E-2,-3.3013344E-1,2.3797837E-1,2.7889085E-1,-2.784082E-1,3.6495656E-1,-4.076234E-3,7.4238914E-1,1.386339E-1,-1.09435886E-1,2.1402949E-1,5.398049E-1,2.3028843E-1],"categories":[],"categories_nodes":[],"categories_segments":[],"categories_sizes":[],"default_left":[0,0,0,0,0,0,0,0,0,0,0,0,0,0,0,0,0,0,0,0,0,0,0,0,0,0,0,0,0,0,0,0,0,0,0,0,0,0,0,0,0,0,0,0,0,0,0,0,0,0,0,0,0,0,0,0,0,0,0],"id":2,"left_children":[1,3,5,7,9,11,13,15,17,19,21,23,25,27,29,31,33,-1,-1,35,37,39,41,43,45,47,49,51,53,55,57,-1,-1,-1,-1,-1,-1,-1,-1,-1,-1,-1,-1,-1,-1,-1,-1,-1,-1,-1,-1,-1,-1,-1,-1,-1,-1,-1,-1],"loss_changes":[1.0689819E2,3.2694336E1,4.8056053E1,8.804498E0,2.1228706E1,5.4488632E1,3.9276596E1,1.2751101E1,1.4369721E0,1.927948E0,1.5035908E1,5.2804493E1,4.580688E1,1.4739769E1,2.1036919E1,2.2001163E1,2.9486523E0,0E0,0E0,2.2460709E0,2.7787557E0,4.7052555E0,1.323328E1,2.0006077E1,2.1619753E1,6.810631E0,1.1135009E2,2.066954E1,8.550957E0,9.032248E0,3.2623787E0,0E0,0E0,0E0,0E0,0E0,0E0,0E0,0E0,0E0,0E0,0E0,0E0,0E0,0E0,0E0,0E0,0E0,0E0,0E0,0E0,0E0,0E0,0E0,0E0,0E0,0E0,0E0,0E0],"parents":[2147483647,0,0,1,1,2,2,3,3,4,4,5,5,6,6,7,7,8,8,9,9,10,10,11,11,12,12,13,13,14,14,15,15,16,16,19,19,20,20,21,21,22,22,23,23,24,24,25,25,26,26,27,27,28,28,29,29,30,30],"right_children":[2,4,6,8,10,12,14,16,18,20,22,24,26,28,30,32,34,-1,-1,36,38,40,42,44,46,48,50,52,54,56,58,-1,-1,-1,-1,-1,-1,-1,-1,-1,-1,-1,-1,-1,-1,-1,-1,-1,-1,-1,-1,-1,-1,-1,-1,-1,-1,-1,-1],"split_conditions":[2E0,3E0,1.8E1,3E1,1.1E1,1.3E1,2.5E1,1.8E1,3.3E1,6E0,6E0,4E0,1.6E1,2.8E1,3.2E1,1.6E1,2.6E1,7.6390016E-1,1.003435E-1,4E0,1E1,1.2E1,2.1E1,1E1,6E0,2E0,2.4E1,2.5E1,2.2E1,2E0,3.7E1,-3.679969E-2,6.288452E-1,-4.6592948E-1,-1.6227359E-1,-1.348918E-1,-3.223251E-1,-2.1448396E-1,2.5189623E-1,-2.6211178E-1,-4.206107E-2,-3.5968196E-1,-1.2702931E-1,5.2742362E-2,1.6608475E-1,-1.1282515E-1,5.4697223E-2,-3.3013344E-1,2.3797837E-1,2.7889085E-1,-2.784082E-1,3.6495656E-1,-4.076234E-3,7.4238914E-1,1.386339E-1,-1.09435886E-1,2.1402949E-1,5.398049E-1,2.3028843E-1],"split_indices":[0,2,0,1,1,0,0,1,1,2,2,2,1,1,0,1,1,0,0,1,1,1,1,0,0,2,1,1,0,2,1,0,0,0,0,0,0,0,0,0,0,0,0,0,0,0,0,0,0,0,0,0,0,0,0,0,0,0,0],"split_type":[0,0,0,0,0,0,0,0,0,0,0,0,0,0,0,0,0,0,0,0,0,0,0,0,0,0,0,0,0,0,0,0,0,0,0,0,0,0,0,0,0,0,0,0,0,0,0,0,0,0,0,0,0,0,0,0,0,0,0],"sum_hessian":[6.8036196E3,1.589687E3,5.2139326E3,7.121392E2,8.7754785E2,4.7750713E3,4.3886102E2,7.0776105E2,4.378195E0,2.70434E2,6.0711383E2,4.212811E3,5.6226025E2,2.3813757E2,2.0072346E2,6.7305743E2,3.4703636E1,2.9187965E0,1.4593983E0,2.4879105E2,2.1642931E1,3.4783173E2,2.5928214E2,3.2644758E3,9.4833527E2,2.039553E2,3.5830496E2,2.014742E2,3.6663376E1,1.5716325E2,4.356022E1,6.614053E2,1.16521435E1,1.8310513E1,1.6393124E1,1.9326754E1,2.294643E2,1.8702652E1,2.9402797E0,2.5348518E1,3.224832E2,1.0016553E2,1.5911661E2,2.8131443E3,4.5133148E2,6.805876E2,2.6774768E2,1.9921216E2,4.7431464E0,1.6649135E2,1.9181361E2,1.5092871E2,5.054548E1,2.8698038E1,7.965338E0,1.3237091E2,2.4792334E1,1.2840658E1,3.0719563E1],"tree_param":{"num_deleted":"0","num_feature":"3","num_nodes":"59","size_leaf_vector":"1"}},{"base_weights":[-8.324747E-4,5.390876E-2,-9.309266E-2,3.7236337E-2,2.2085243E-1,-3.258056E-1,-4.6375725E-2,5.5429745E-2,-1.6673557E-1,4.2738774E-1,-2.5233713E-3,-3.1139922E-1,-6.3040006E-1,-5.2866593E-2,8.901529E-1,3.98811E-2,5.21262E-1,-5.218282E-1,-2.6540894E-2,3.0309227E-1,4.9151483E-1,-4.40068E-1,1.2335145E-1,-3.4460175E-1,-1.360098E-1,-7.5651526E-1,2.8946686E-1,-4.2745568E-2,-5.257826E-1,4.7317705E-1,7.485953E-1,4.4980172E-2,-2.560815E-2,-1.0218005E-2,4.741182E-1,-4.3910125E-1,1.3531962E-1,6.4923894E-1,-6.019039E-2,3.2616615E-1,6.850843E-2,-1.4262328E-1,-7.9040873E-1,3.1036642E-1,-3.9400574E-2,-1.8546063E-1,1.242903E-2,-3.87139E-1,8.7954395E-2,-5.187124E-1,2.996306E-2,2.971012E-2,-4.753857E-2,-3.5056797E-1,5.210663E-1,5.406062E-1,-5.038929E-1],"categories":[],"categories_nodes":[],"categories_segments":[],"categories_sizes":[],"default_left":[0,0,0,0,0,0,0,0,0,0,0,0,0,0,0,0,0,0,0,0,0,0,0,0,0,0,0,0,0,0,0,0,0,0,0,0,0,0,0,0,0,0,0,0,0,0,0,0,0,0,0,0,0,0,0,0,0],"id":3,"left_children":[1,3,5,7,9,11,13,15,17,19,21,23,25,27,29,31,33,35,37,39,-1,41,43,45,47,49,-1,51,53,55,-1,-1,-1,-1,-1,-1,-1,-1,-1,-1,-1,-1,-1,-1,-1,-1,-1,-1,-1,-1,-1,-1,-1,-1,-1,-1,-1],"loss_changes":[3.360616E1,1.1615692E1,2.6923634E1,1.4104237E1,1.7486254E1,1.6208229E0,1.2598665E1,2.5242516E1,1.5482868E1,1.3302715E1,1.0137082E1,2.2672195E0,3.141333E0,9.796907E0,2.9031162E0,1.5407838E1,2.6057606E1,2.5107033E1,2.8037155E1,9.32842E0,0E0,6.811253E0,1.4422286E1,3.2519264E0,1.3057929E1,3.8428879E0,0E0,1.0750095E1,1.2524682E1,1.0022612E1,0E0,0E0,0E0,0E0,0E0,0E0,0E0,0E0,0E0,0E0,0E0,0E0,0E0,0E0,0E0,0E0,0E0,0E0,0E0,0E0,0E0,0E0,0E0,0E0,0E0,0E0,0E0],"parents":[2147483647,0,0,1,1,2,2,3,3,4,4,5,5,6,6,7,7,8,8,9,9,10,10,11,11,12,12,13,13,14,14,15,15,16,16,17,17,18,18,19,19,21,21,22,22,23,23,24,24,25,25,27,27,28,28,29,29],"right_children":[2,4,6,8,10,12,14,16,18,20,22,24,26,28,30,32,34,36,38,40,-1,42,44,46,48,50,-1,52,54,56,-1,-1,-1,-1,-1,-1,-1,-1,-1,-1,-1,-1,-1,-1,-1,-1,-1,-1,-1,-1,-1,-1,-1,-1,-1,-1,-1],"split_conditions":[3E0,1.8E1,1.1E1,2.3E1,2.5E1,5E0,1.4E1,2E1,5E0,2.3E1,2.6E1,3E0,5E0,5.6E1,3.3E1,7E0,1.1E1,3E1,7E0,2.1E1,4.9151483E-1,2.9E1,2.8E1,6E0,7E0,6E0,2.8946686E-1,4E0,6.1E1,3.1E1,7.485953E-1,4.4980172E-2,-2.560815E-2,-1.0218005E-2,4.741182E-1,-4.3910125E-1,1.3531962E-1,6.4923894E-1,-6.019039E-2,3.2616615E-1,6.850843E-2,-1.4262328E-1,-7.9040873E-1,3.1036642E-1,-3.9400574E-2,-1.8546063E-1,1.242903E-2,-3.87139E-1,8.7954395E-2,-5.187124E-1,2.996306E-2,2.971012E-2,-4.753857E-2,-3.5056797E-1,5.210663E-1,5.406062E-1,-5.038929E-1],"split_indices":[2,0,1,1,0,0,2,1,0,0,0,0,2,1,1,0,0,1,0,1,0,1,1,2,1,0,0,2,1,1,0,0,0,0,0,0,0,0,0,0,0,0,0,0,0,0,0,0,0,0,0,0,0,0,0,0,0],"split_type":[0,0,0,0,0,0,0,0,0,0,0,0,0,0,0,0,0,0,0,0,0,0,0,0,0,0,0,0,0,0,0,0,0,0,0,0,0,0,0,0,0,0,0,0,0,0,0,0,0,0,0,0,0,0,0,0,0],"sum_hessian":[6.652116E3,4.1752236E3,2.4768926E3,3.7972236E3,3.780002E2,4.1310446E2,2.063788E3,3.4869326E3,3.10291E2,1.9592908E2,1.8207114E2,3.963793E2,1.6725166E1,2.05052E3,1.3268139E1,3.375355E3,1.115777E2,8.70596E1,2.2323138E2,1.6137537E2,3.455372E1,4.011927E1,1.4195187E2,3.324746E2,6.3904694E1,1.5484775E1,1.2403911E0,2.0086232E3,4.1896786E1,8.920268E0,4.3478703E0,2.1780317E3,1.1973232E3,4.960125E1,6.1976448E1,5.997881E1,2.708079E1,1.3914965E1,2.093164E2,5.10643E1,1.1031106E2,3.6425667E1,3.693606E0,4.0423138E1,1.0152873E2,3.103612E2,2.211341E1,2.0491447E1,4.3413246E1,1.1319468E1,4.1653075E0,6.803179E2,1.3283053E3,3.8179653E1,3.7171328E0,6.5152454E0,2.4050229E0],"tree_param":{"num_deleted":"0","num_feature":"3","num_nodes":"57","size_leaf_vector":"1"}},{"base_weights":[1.410702E-4,-1.06526434E-1,3.1458925E-2,-8.3683915E-2,-2.975252E-1,1.3664626E-1,9.649213E-3,-8.6704396E-2,6.017781E-1,-3.2230258E-1,6.779055E-1,2.2018006E-1,-2.8393608E-1,-1.8428056E-1,5.1283985E-2,-7.984739E-2,-5.5403817E-1,-5.239543E-1,-1.6589268E-1,4.7131594E-2,2.7836296E-1,-2.9671332E-1,-1.595294E-1,-5.592144E-2,-2.615656E-1,2.282574E-1,2.161014E-2,-4.3784652E-2,4.0354672E-1,-3.708775E-1,1.7921718E-4,-3.89542E-1,-1.8256104E-1,-1.716615E-1,-2.0980982E-2,1.2038267E-1,1.4956662E-1,-4.8413876E-2,-2.5601664E-1,2.334312E-2,-1.0483222E-1,1.6844577E-1,-9.451688E-2,-4.721375E-4,7.4627936E-2],"categories":[],"categories_nodes":[],"categories_segments":[],"categories_sizes":[],"default_left":[0,0,0,0,0,0,0,0,0,0,0,0,0,0,0,0,0,0,0,0,0,0,0,0,0,0,0,0,0,0,0,0,0,0,0,0,0,0,0,0,0,0,0,0,0],"id":4,"left_children":[1,3,5,7,9,11,13,15,-1,17,-1,19,21,23,25,27,29,31,33,-1,35,-1,37,39,-1,41,43,-1,-1,-1,-1,-1,-1,-1,-1,-1,-1,-1,-1,-1,-1,-1,-1,-1,-1],"loss_changes":[2.1947245E1,6.480734E0,1.1649813E1,5.288081E0,6.9459934E0,3.0702349E1,3.398263E1,4.221121E0,0E0,4.8760376E0,0E0,5.308449E0,5.4862585E0,3.232594E1,1.8189983E1,9.063058E0,1.985826E0,2.4821186E0,1.9663818E0,0E0,3.1650162E-1,0E0,2.2658212E0,8.538451E0,0E0,2.2612648E1,8.545809E0,0E0,0E0,0E0,0E0,0E0,0E0,0E0,0E0,0E0,0E0,0E0,0E0,0E0,0E0,0E0,0E0,0E0,0E0],"parents":[2147483647,0,0,1,1,2,2,3,3,4,4,5,5,6,6,7,7,9,9,11,11,12,12,13,13,14,14,15,15,16,16,17,17,18,18,20,20,22,22,23,23,25,25,26,26],"right_children":[2,4,6,8,10,12,14,16,-1,18,-1,20,22,24,26,28,30,32,34,-1,36,-1,38,40,-1,42,44,-1,-1,-1,-1,-1,-1,-1,-1,-1,-1,-1,-1,-1,-1,-1,-1,-1,-1],"split_conditions":[2E0,7E0,6E0,5.8E1,1.5E1,2E0,9E0,4.9E1,6.017781E-1,8E0,6.779055E-1,3E0,4E0,8E0,1.2E1,4.5E1,5.4E1,1.9E1,2.4E1,4.7131594E-2,4E0,-2.9671332E-1,4E0,2E0,-2.615656E-1,3E0,1.7E1,-4.3784652E-2,4.0354672E-1,-3.708775E-1,1.7921718E-4,-3.89542E-1,-1.8256104E-1,-1.716615E-1,-2.0980982E-2,1.2038267E-1,1.4956662E-1,-4.8413876E-2,-2.5601664E-1,2.334312E-2,-1.0483222E-1,1.6844577E-1,-9.451688E-2,-4.721375E-4,7.4627936E-2],"split_indices":[0,2,1,1,2,2,1,1,0,2,0,0,1,0,1,1,1,1,1,0,0,0,0,2,0,2,0,0,0,0,0,0,0,0,0,0,0,0,0,0,0,0,0,0,0],"split_type":[0,0,0,0,0,0,0,0,0,0,0,0,0,0,0,0,0,0,0,0,0,0,0,0,0,0,0,0,0,0,0,0,0,0,0,0,0,0,0,0,0,0,0,0,0],"sum_hessian":[6.5678525E3,1.490128E3,5.077724E3,1.3322372E3,1.5789087E2,8.711138E2,4.2066104E3,1.3300488E3,2.1882806E0,1.5635278E2,1.5380876E0,7.2716473E2,1.4394905E2,7.428904E2,3.4637202E3,1.3119697E3,1.8079163E1,6.727216E1,8.908062E1,2.3064124E2,4.9652347E2,4.019201E1,1.0375704E2,5.3963696E2,2.0325342E2,4.9641748E2,2.9673027E3,1.3015394E3,1.0430247E1,1.32535925E1,4.825571E0,2.4313187E1,4.295898E1,3.5905216E1,5.3175404E1,1.8116919E2,3.1535428E2,8.917052E1,1.4586524E1,3.240579E2,2.1557906E2,3.9403128E2,1.0238618E2,2.5225688E3,4.447338E2],"tree_param":{"num_deleted":"0","num_feature":"3","num_nodes":"45","size_leaf_vector":"1"}},{"base_weights":[-9.61039E-5,-1.3273672E-3,9.219211E-1,-5.5829976E-2,1.45816095E-2,1.4871989E-1,6.892612E-1,1.0599616E-2,-8.173452E-2,1.792611E-2,-4.302219E-1,3.1062296E-1,-1.7981596E-1,-2.5584832E-1,-5.125909E-2,3.2901652E-2,-4.966232E-2,-5.2412325E-1,6.6085523E-1,-8.6097136E-2,-2.148727E-1,2.5484467E-2,-4.0720034E-2,9.18319E-3,1.0614373E-1,-1.3330925E-1,9.103326E-3,-2.9725382E-1,4.2709732E-1,4.8939735E-1,1.5588544E-2],"categories":[],"categories_nodes":[],"categories_segments":[],"categories_sizes":[],"default_left":[0,0,0,0,0,0,0,0,0,0,0,0,0,0,0,0,0,0,0,0,0,0,0,0,0,0,0,0,0,0,0],"id":5,"left_children":[1,3,5,7,9,11,-1,-1,13,15,17,-1,-1,19,21,23,25,27,29,-1,-1,-1,-1,-1,-1,-1,-1,-1,-1,-1,-1],"loss_changes":[7.3488946E0,5.6062164E0,2.8428388E0,2.9167323E0,7.4531217E0,1.2626169E0,0E0,0E0,5.788775E0,5.030555E0,4.177184E0,0E0,0E0,2.2917252E0,2.8790548E0,1.0602724E1,1.3280238E1,3.9018373E0,6.512157E-1,0E0,0E0,0E0,0E0,0E0,0E0,0E0,0E0,0E0,0E0,0E0,0E0],"parents":[2147483647,0,0,1,1,2,2,3,3,4,4,5,5,8,8,9,9,10,10,13,13,14,14,15,15,16,16,17,17,18,18],"right_children":[2,4,6,8,10,12,-1,-1,14,16,18,-1,-1,20,22,24,26,28,30,-1,-1,-1,-1,-1,-1,-1,-1,-1,-1,-1,-1],"split_conditions":[4.3E1,2E0,2E0,2E0,5.6E1,4.5E1,6.892612E-1,1.0599616E-2,5E0,1.3E1,6.2E1,3.1062296E-1,-1.7981596E-1,4E0,3E0,1.1E1,1.6E1,7E0,4E0,-8.6097136E-2,-2.148727E-1,2.5484467E-2,-4.0720034E-2,9.18319E-3,1.0614373E-1,-1.3330925E-1,9.103326E-3,-2.9725382E-1,4.2709732E-1,4.8939735E-1,1.5588544E-2],"split_indices":[0,0,2,1,1,1,0,0,1,0,1,0,0,1,2,0,1,2,0,0,0,0,0,0,0,0,0,0,0,0,0],"split_type":[0,0,0,0,0,0,0,0,0,0,0,0,0,0,0,0,0,0,0,0,0,0,0,0,0,0,0,0,0,0,0],"sum_hessian":[6.4713164E3,6.463683E3,7.633053E0,1.4598545E3,5.0038286E3,3.3262115E0,4.3068414E0,3.674361E2,1.0924183E3,4.967438E3,3.639072E1,1.6087544E0,1.717457E0,1.6162411E2,9.3079425E2,4.0668591E3,9.005791E2,3.398546E1,2.4052618E0,1.1047147E2,5.1152637E1,2.1200592E2,7.187883E2,3.763049E3,3.0380994E2,2.1389485E2,6.8668427E2,3.2875336E1,1.1101221E0,1.2298466E0,1.1754152E0],"tree_param":{"num_deleted":"0","num_feature":"3","num_nodes":"31","size_leaf_vector":"1"}},{"base_weights":[5.8177808E-5,-1.9758854E-3,3.3448735E-1,1.1894396E-3,-2.9831478E-1,1.9234897E-1,9.656012E-1,3.70469E-2,-1.896139E-2,-4.569933E-1,6.0189027E-1,5.1383305E-1,-3.0759716E-1,1.062382E0,1.112493E-1,7.419547E-2,4.11423E-3,-1.7383239E-1,6.859857E-4,-1.258331E-1,-5.636225E-1,7.012505E-1,-2.924702E-1,3.6972922E-1,2.2318664E-1,-1.0640466E0,5.974981E-1,1.4575548E-1,5.985483E-1,1.0764233E-2,7.0078276E-2,-5.0554745E-2,4.1177914E-2,-6.385205E-2,-1.5125856E-1,-2.9313755E-3,2.2717366E-1,-3.116667E-1,2.3025109E-2,-7.189052E-1,2.4455659E-1,-1.2545925E-1,4.4369107E-1,-1.0674405E-1,-8.6561215E-1,5.6682672E-2,4.9878722E-1],"categories":[],"categories_nodes":[],"categories_segments":[],"categories_sizes":[],"default_left":[0,0,0,0,0,0,0,0,0,0,0,0,0,0,0,0,0,0,0,0,0,0,0,0,0,0,0,0,0,0,0,0,0,0,0,0,0,0,0,0,0,0,0,0,0,0,0],"id":6,"left_children":[1,3,5,7,9,11,13,15,17,19,21,23,25,27,-1,29,31,33,35,-1,37,-1,39,-1,41,43,45,-1,-1,-1,-1,-1,-1,-1,-1,-1,-1,-1,-1,-1,-1,-1,-1,-1,-1,-1,-1],"loss_changes":[4.3784103E0,6.00135E0,3.3048158E0,4.5751934E0,9.933716E0,5.463148E0,2.6013374E-1,2.7867434E0,1.233523E1,1.1291571E0,7.9746103E0,1.1769137E0,9.908548E0,2.5785685E-1,0E0,3.7157865E0,9.958893E0,2.670498E0,1.069338E1,0E0,1.390336E0,0E0,5.910911E0,0E0,3.4898944E0,4.0210934E0,1.2052414E0,0E0,0E0,0E0,0E0,0E0,0E0,0E0,0E0,0E0,0E0,0E0,0E0,0E0,0E0,0E0,0E0,0E0,0E0,0E0,0E0],"parents":[2147483647,0,0,1,1,2,2,3,3,4,4,5,5,6,6,7,7,8,8,9,9,10,10,11,11,12,12,13,13,15,15,16,16,17,17,18,18,20,20,22,22,24,24,25,25,26,26],"right_children":[2,4,6,8,10,12,14,16,18,20,22,24,26,28,-1,30,32,34,36,-1,38,-1,40,-1,42,44,46,-1,-1,-1,-1,-1,-1,-1,-1,-1,-1,-1,-1,-1,-1,-1,-1,-1,-1,-1,-1],"split_conditions":[3.2E1,2.8E1,3E0,2E0,2E0,4.2E1,4.2E1,6E0,7E0,2.9E1,3.9E1,3.7E1,4.3E1,3.4E1,1.112493E-1,3E0,9E0,6E0,2E1,-1.258331E-1,3.1E1,7.012505E-1,4.1E1,3.6972922E-1,2E0,4.4E1,2E0,1.4575548E-1,5.985483E-1,1.0764233E-2,7.0078276E-2,-5.0554745E-2,4.1177914E-2,-6.385205E-2,-1.5125856E-1,-2.9313755E-3,2.2717366E-1,-3.116667E-1,2.3025109E-2,-7.189052E-1,2.4455659E-1,-1.2545925E-1,4.4369107E-1,-1.0674405E-1,-8.6561215E-1,5.6682672E-2,4.9878722E-1],"split_indices":[0,0,2,2,2,1,0,0,1,1,1,1,0,0,0,0,0,1,0,0,0,0,1,0,2,1,2,0,0,0,0,0,0,0,0,0,0,0,0,0,0,0,0,0,0,0,0],"split_type":[0,0,0,0,0,0,0,0,0,0,0,0,0,0,0,0,0,0,0,0,0,0,0,0,0,0,0,0,0,0,0,0,0,0,0,0,0,0,0,0,0,0,0,0,0,0,0],"sum_hessian":[6.434499E3,6.396588E3,3.7911198E1,6.3299707E3,6.661719E1,3.200734E1,5.9038606E0,2.2771143E3,4.0528564E3,5.7052868E1,9.564323E0,1.9463686E1,1.25436535E1,4.8434043E0,1.0604564E0,1.0694757E3,1.2076384E3,4.553894E2,3.597467E3,2.0649672E1,3.6403194E1,4.746873E0,4.8174505E0,1.008817E1,9.375515E0,6.7372546E0,5.806399E0,1.1911659E0,3.6522384E0,5.954009E2,4.7407486E2,5.148913E2,6.9274713E2,3.3669147E2,1.1869793E2,3.5472485E3,5.0218517E1,3.3135517E1,3.2676775E0,1.6134591E0,3.2039917E0,5.833654E0,3.5418613E0,3.5418613E0,3.195393E0,3.2078888E0,2.59851E0],"tree_param":{"num_deleted":"0","num_feature":"3","num_nodes":"47","size_leaf_vector":"1"}},{"base_weights":[3.766157E-4,-5.497225E-4,4.2475677E-1,2.5948293E-3,-2.707477E-1,1.5330094E-1,4.3540657E-1,9.694139E-3,-6.662588E-2,-5.339936E-1,2.9819036E-1,5.369882E-1,-3.9314067E-1,-3.3056466E-3,2.4613526E-1,-8.034651E-3,-3.083489E-1,-4.1971448E-1,-8.6495364E-1,1.109353E0,-1.9338001E-1,2.0045687E-1,5.1451343E-1,6.491353E-3,-4.729514E-2,2.2861719E-1,2.6219461E-2,3.9225423E-1,-2.9277114E-2,-1.930232E-1,4.524561E-1,-2.9075748E-1,-8.7753765E-2,-5.180398E-1,-9.47174E-2,8.982651E-1,3.3952236E-1,-2.015988E-1,5.909432E-1,3.961267E-1,-8.472455E-2],"categories":[],"categories_nodes":[],"categories_segments":[],"categories_sizes":[],"default_left":[0,0,0,0,0,0,0,0,0,0,0,0,0,0,0,0,0,0,0,0,0,0,0,0,0,0,0,0,0,0,0,0,0,0,0,0,0,0,0,0,0],"id":7,"left_children":[1,3,5,7,9,11,-1,13,15,17,19,21,-1,23,25,27,29,31,33,35,37,39,-1,-1,-1,-1,-1,-1,-1,-1,-1,-1,-1,-1,-1,-1,-1,-1,-1,-1,-1],"loss_changes":[2.5120692E0,5.4185715E0,1.5517495E0,3.0986564E0,1.1147318E1,3.978982E0,0E0,1.7578182E1,8.304691E0,1.5475893E0,9.724431E0,1.0521028E0,0E0,8.062506E0,1.216284E1,1.8989887E1,1.113431E1,1.4584222E0,1.193613E0,1.4850702E0,5.007383E0,1.3940333E0,0E0,0E0,0E0,0E0,0E0,0E0,0E0,0E0,0E0,0E0,0E0,0E0,0E0,0E0,0E0,0E0,0E0,0E0,0E0],"parents":[2147483647,0,0,1,1,2,2,3,3,4,4,5,5,7,7,8,8,9,9,10,10,11,11,13,13,14,14,15,15,16,16,17,17,18,18,19,19,20,20,21,21],"right_children":[2,4,6,8,10,12,-1,14,16,18,20,22,-1,24,26,28,30,32,34,36,38,40,-1,-1,-1,-1,-1,-1,-1,-1,-1,-1,-1,-1,-1,-1,-1,-1,-1,-1,-1],"split_conditions":[1.4E1,1E1,3.3E1,3.6E1,3.8E1,3.1E1,4.3540657E-1,3E1,1.3E1,3E0,4.4E1,2.5E1,-3.9314067E-1,2.3E1,4E0,3E0,7E0,2.7E1,3.5E1,2E0,1.2E1,2E1,5.1451343E-1,6.491353E-3,-4.729514E-2,2.2861719E-1,2.6219461E-2,3.9225423E-1,-2.9277114E-2,-1.930232E-1,4.524561E-1,-2.9075748E-1,-8.7753765E-2,-5.180398E-1,-9.47174E-2,8.982651E-1,3.3952236E-1,-2.015988E-1,5.909432E-1,3.961267E-1,-8.472455E-2],"split_indices":[2,2,1,1,1,1,0,1,0,0,1,1,0,1,2,2,2,1,1,0,2,1,0,0,0,0,0,0,0,0,0,0,0,0,0,0,0,0,0,0,0],"split_type":[0,0,0,0,0,0,0,0,0,0,0,0,0,0,0,0,0,0,0,0,0,0,0,0,0,0,0,0,0,0,0,0,0,0,0,0,0,0,0,0,0],"sum_hessian":[6.388495E3,6.375577E3,1.2917924E1,6.3032114E3,7.23661E1,8.866023E0,4.0519013E0,5.7176646E3,5.855465E2,4.951642E1,2.2849678E1,6.5995264E0,2.2664967E0,5.420619E3,2.970454E2,4.7213818E2,1.1340831E2,3.8493088E1,1.102333E1,8.147826E0,1.4701852E1,4.7548404E0,1.8446864E0,4.6005747E3,8.200447E2,1.4148645E2,1.5555894E2,2.7421724E1,4.4471646E2,1.072235E2,6.184807E0,2.2322184E1,1.6170906E1,8.369396E0,2.6539338E0,1.9148837E0,6.232942E0,1.3369028E1,1.332824E0,1.3897192E0,3.365121E0],"tree_param":{"num_deleted":"0","num_feature":"3","num_nodes":"41","size_leaf_vector":"1"}},{"base_weights":[4.9794617E-4,-1.4404464E-3,3.7350166E-1,1.306221E-4,-4.0070578E-1,9.744869E-2,6.639122E-1,-3.943672E-3,6.608834E-2,-3.5096845E-1,4.6241567E-2,2.4817812E-1,-9.218236E-2,1.0789762E0,1.4619088E-1,3.3641628E-3,-2.0640902E-1,7.327692E-2,-6.01376E-1,-1.4722358E-1,3.1917796E-1,-4.4852954E-1,4.178541E-1,2.087512E-1,5.8659035E-1,-5.3401613E-1,4.8408592E-1,1.2405644E-3,3.414605E-1,-3.137962E-2,-4.1743675E-1,2.0345993E-2,2.2047217E-1,1.4872928E-1,-3.6937785E-1,1.1459103E-2,-8.0244374E-1,3.4835765E-1,-7.766018E-2,-1.0700544E-1,-3.6780798E-1],"categories":[],"categories_nodes":[],"categories_segments":[],"categories_sizes":[],"default_left":[0,0,0,0,0,0,0,0,0,0,0,0,0,0,0,0,0,0,0,0,0,0,0,0,0,0,0,0,0,0,0,0,0,0,0,0,0,0,0,0,0],"id":8,"left_children":[1,3,5,7,9,11,13,15,17,-1,19,-1,21,23,25,27,29,31,-1,33,-1,35,37,-1,-1,39,-1,-1,-1,-1,-1,-1,-1,-1,-1,-1,-1,-1,-1,-1,-1],"loss_changes":[4.6091995E0,3.9783182E0,2.5774245E0,1.698185E0,3.3792367E0,1.4125297E0,3.2565718E0,8.806672E0,3.4414334E0,0E0,1.3479533E0,0E0,2.5665069E0,4.9957275E-2,5.1167736E0,3.4459028E0,1.8667187E1,4.373016E0,0E0,2.6038134E0,0E0,4.5007105E0,1.051507E0,0E0,0E0,1.7456281E-1,0E0,0E0,0E0,0E0,0E0,0E0,0E0,0E0,0E0,0E0,0E0,0E0,0E0,0E0,0E0],"parents":[2147483647,0,0,1,1,2,2,3,3,4,4,5,5,6,6,7,7,8,8,10,10,12,12,13,13,14,14,15,15,16,16,17,17,19,19,21,21,22,22,25,25],"right_children":[2,4,6,8,10,12,14,16,18,-1,20,-1,22,24,26,28,30,32,-1,34,-1,36,38,-1,-1,40,-1,-1,-1,-1,-1,-1,-1,-1,-1,-1,-1,-1,-1,-1,-1],"split_conditions":[3.3E1,3E1,2E0,1.7E1,3.1E1,3.7E1,4.1E1,1.5E1,6E1,-3.5096845E-1,4.3E1,2.4817812E-1,4.1E1,3.5E1,4.3E1,5.9E1,3E1,3E1,-6.01376E-1,3.3E1,3.1917796E-1,4.1E1,4.5E1,2.087512E-1,5.8659035E-1,4.2E1,4.8408592E-1,1.2405644E-3,3.414605E-1,-3.137962E-2,-4.1743675E-1,2.0345993E-2,2.2047217E-1,1.4872928E-1,-3.6937785E-1,1.1459103E-2,-8.0244374E-1,3.4835765E-1,-7.766018E-2,-1.0700544E-1,-3.6780798E-1],"split_indices":[0,0,2,0,1,1,0,0,1,0,1,0,0,0,0,1,1,1,0,1,0,1,1,0,0,0,0,0,0,0,0,0,0,0,0,0,0,0,0,0,0],"split_type":[0,0,0,0,0,0,0,0,0,0,0,0,0,0,0,0,0,0,0,0,0,0,0,0,0,0,0,0,0,0,0,0,0,0,0,0,0,0,0,0,0],"sum_hessian":[6.3731157E3,6.3411587E3,3.1957031E1,6.3173003E3,2.3858261E1,1.706821E1,1.4888822E1,5.9506606E3,3.6663983E2,1.3911651E1,9.94661E0,4.9783273E0,1.2089884E1,7.662005E0,7.2268167E0,5.7443076E3,2.0635309E2,3.655113E2,1.1285439E0,8.0633745E0,1.8832363E0,7.188257E0,4.9016266E0,1.6323119E0,6.0296926E0,4.1461325E0,3.080684E0,5.7378555E3,6.4522696E0,1.6885689E2,3.7496204E1,3.367749E2,2.8736374E1,4.886845E0,3.1765294E0,5.8026814E0,1.3855758E0,3.1523874E0,1.7492391E0,2.3992682E0,1.7468644E0],"tree_param":{"num_deleted":"0","num_feature":"3","num_nodes":"41","size_leaf_vector":"1"}},{"base_weights":[2.7143225E-4,-8.690082E-4,2.8527153E-1,1.7704134E-3,-1.0595192E-1,8.374487E-2,5.2048284E-1,-1.0189059E-3,6.321654E-1,-3.6985692E-1,-9.4493665E-3,2.6265582E-1,-1.5465276E-1,4.9036455E-1,1.08069204E-1,4.1697038E-4,-4.1625038E-1,6.631718E-1,5.2705847E-2,-2.4257067E-1,-6.196734E-1,2.2657607E-1,-1.3514541E-1,4.190393E-2,4.930178E-1,-5.3412116E-1,2.840383E-1,-3.8184828E-1,4.0727675E-1,-7.7005464E-4,1.1456058E-1,-3.9938994E-2,-6.1366E-1,2.8553277E-1,4.590718E-1,-1.6375886E-1,5.062248E-1,9.710761E-2,3.6702782E-1,-9.6483424E-2,4.071236E-1,1.363533E-1,-1.1804923E-1,4.214061E-1,4.4156376E-2,2.4628688E-1,-5.3091828E-2,-7.028567E-2,-2.7457666E-1],"categories":[],"categories_nodes":[],"categories_segments":[],"categories_sizes":[],"default_left":[0,0,0,0,0,0,0,0,0,0,0,0,0,0,0,0,0,0,0,0,0,0,0,0,0,0,0,0,0,0,0,0,0,0,0,0,0,0,0,0,0,0,0,0,0,0,0,0,0],"id":9,"left_children":[1,3,5,7,9,11,13,15,17,19,21,23,25,-1,27,29,31,33,-1,35,-1,37,39,41,43,-1,45,47,-1,-1,-1,-1,-1,-1,-1,-1,-1,-1,-1,-1,-1,-1,-1,-1,-1,-1,-1,-1,-1],"loss_changes":[2.067959E0,1.7578968E0,1.1584225E0,1.0872723E1,3.9514604E0,6.7394775E-1,2.0786364E0,3.670984E0,3.7498665E-1,4.298465E0,3.4346325E0,4.2955583E-1,3.1070788E0,0E0,2.801007E0,2.7470374E0,5.690666E0,7.5380325E-2,0E0,4.328638E0,0E0,5.1835275E-1,4.301395E0,4.2459017E-1,5.2572155E-1,0E0,5.011698E-1,1.2177032E-1,0E0,0E0,0E0,0E0,0E0,0E0,0E0,0E0,0E0,0E0,0E0,0E0,0E0,0E0,0E0,0E0,0E0,0E0,0E0,0E0,0E0],"parents":[2147483647,0,0,1,1,2,2,3,3,4,4,5,5,6,6,7,7,8,8,9,9,10,10,11,11,12,12,14,14,15,15,16,16,17,17,19,19,21,21,22,22,23,23,24,24,26,26,27,27],"right_children":[2,4,6,8,10,12,14,16,18,20,22,24,26,-1,28,30,32,34,-1,36,-1,38,40,42,44,-1,46,48,-1,-1,-1,-1,-1,-1,-1,-1,-1,-1,-1,-1,-1,-1,-1,-1,-1,-1,-1,-1,-1],"split_conditions":[3.5E1,2.5E1,2E0,2.3E1,2.6E1,4.1E1,4.1E1,2.2E1,3.7E1,3.8E1,2.8E1,3.8E1,4.1E1,4.9036455E-1,4.3E1,2E1,2.3E1,2E0,5.2705847E-2,2.6E1,-6.196734E-1,2E0,4.3E1,3.7E1,3.9E1,-5.3412116E-1,4.5E1,4.2E1,4.0727675E-1,-7.7005464E-4,1.1456058E-1,-3.9938994E-2,-6.1366E-1,2.8553277E-1,4.590718E-1,-1.6375886E-1,5.062248E-1,9.710761E-2,3.6702782E-1,-9.6483424E-2,4.071236E-1,1.363533E-1,-1.1804923E-1,4.214061E-1,4.4156376E-2,2.4628688E-1,-5.3091828E-2,-7.028567E-2,-2.7457666E-1],"split_indices":[0,0,2,0,0,1,0,0,1,1,1,0,0,0,0,0,1,2,0,1,0,2,1,0,1,0,1,0,0,0,0,0,0,0,0,0,0,0,0,0,0,0,0,0,0,0,0,0,0],"split_type":[0,0,0,0,0,0,0,0,0,0,0,0,0,0,0,0,0,0,0,0,0,0,0,0,0,0,0,0,0,0,0,0,0,0,0,0,0,0,0,0,0,0,0,0,0,0,0,0,0],"sum_hessian":[6.360686E3,6.336328E3,2.4358145E1,6.1820337E3,1.5429417E2,1.3848734E1,1.0509412E1,6.1557944E3,2.6239265E1,4.0555275E1,1.1373889E2,7.8532944E0,5.9954395E0,4.315438E0,6.193974E0,6.1355767E3,2.0217915E1,2.4536015E1,1.7032502E0,3.6492107E1,4.063167E0,3.9244698E1,7.44942E1,4.613838E0,3.2394562E0,1.4794225E0,4.516017E0,3.9289322E0,2.2650418E0,6.0845034E3,5.107337E1,1.5067501E1,5.150414E0,2.0404715E1,4.1313014E0,3.487088E1,1.6212288E0,3.8191982E1,1.0527129E0,7.09687E1,3.5255024E0,2.5313306E0,2.0825076E0,1.1569487E0,2.0825076E0,2.7722363E0,1.7437805E0,2.3623326E0,1.5665994E0],"tree_param":{"num_deleted":"0","num_feature":"3","num_nodes":"49","size_leaf_vector":"1"}}]},"name":"gbtree"},"learner_model_param":{"base_score":"5E-1","boost_from_average":"1","num_class":"0","num_feature":"3","num_target":"1"},"objective":{"name":"binary:logistic","reg_loss_param":{"scale_pos_weight":"1"}}},"version":[2,0,3]}